37 100
e 0.22894579 0.018125884 -0.047007907 0.026391089 -0.08410629 0.042102605 0.19332448 0.04419649 0.22332841 0.12207879 0.20176673 0.2137046 0.144299 0.1077951 0.17956123 0.11858179 -0.33023158 -0.23130865 0.079242095 -0.1778481 0.18652116 0.20735946 -0.09724756 -0.29475522 -0.040154807 -0.0527085 0.08248274 0.028697744 0.20734191 0.1434786 -0.18361384 0.2517993 0.22861674 -0.018833853 -0.12170067 -0.24051236 0.14046186 0.18904021 -0.052375365 -0.019918216 -0.00026703495 0.065446615 0.01539892 0.17162453 0.23800771 0.17657512 0.12586145 -0.34606647 -0.5106507 0.0014673104 -0.11829126 -0.15732902 0.00059355557 -0.117669284 0.16796382 -0.22589684 0.18324699 -0.1432052 -0.10824973 -0.056051962 -0.03304817 -0.19836514 0.043790042 -0.07902638 -0.38936022 -0.053455934 -0.06137043 0.010520164 0.06788945 -0.09357034 0.08171352 0.037035745 0.23434442 -0.066095695 -0.15416895 -0.09993183 -0.06499494 0.29420602 0.3641291 0.077296965 -0.58880377 0.28161004 0.26197237 -0.09671587 0.07037314 -0.027387964 0.022457862 0.33194247 0.23548254 -0.15657422 -0.36731052 -0.14385466 -0.30986518 -0.01667506 -0.013026664 -0.04292883 -0.14403225 0.41363692 0.18245754 -0.30445033
a 0.21127716 0.14811696 -0.03003102 0.05515453 0.06496612 -0.03163473 0.0717927 0.17556895 0.1534142 0.047990672 -0.11152343 0.3526315 0.05873441 0.07725593 -0.031657092 0.27710766 -0.18533958 -0.27010047 0.038175747 -0.08855002 0.15211913 0.06758541 -0.19029911 -0.031179864 -0.102941684 -0.21563244 -0.16258068 -0.021262076 0.29576904 0.25551277 -0.19412133 0.32796228 0.12475944 -0.06434012 -0.20379956 -0.1262172 -0.07483858 0.028510088 0.0040211985 -0.08000011 -0.12535138 -0.003330886 0.1633749 0.0709195 0.23351166 0.26572466 0.38097504 -0.33184552 -0.5133895 -0.04694748 -0.090785466 -0.07870579 -0.00729043 0.1079951 0.031106982 -0.42863268 -0.033870514 -0.009291893 0.07710043 0.0560411 0.067954846 -0.16432801 0.06393452 -0.2838682 -0.14935917 -0.11627777 -0.19536492 0.13162853 0.05711524 -0.33464226 -0.19463703 0.115609266 0.3494651 -0.04769006 -0.22387631 -0.13531409 -0.08333421 0.08529311 0.1341444 0.106381 -0.55082947 0.24773557 0.15607637 -0.043889586 0.07568372 0.0297078 0.07108098 0.39598778 0.26912645 -0.11612211 -0.0066814744 -0.09194973 -0.1752576 -0.1068538 -0.15394345 0.033124976 -0.30770463 0.28185263 0.1125245 -0.21409176
o 0.17241064 -0.11035399 -0.19319221 0.08719776 0.012665477 0.063720874 0.14657238 0.108920276 0.17844374 0.18124618 0.09626339 0.24243796 0.12515062 0.17865439 0.03858434 0.19961677 -0.18180715 -0.12171747 0.022241244 0.058635764 0.21420005 0.19200677 -0.15092774 -0.02963157 -0.1997332 -0.1686099 -0.15107721 -0.01915387 0.22809373 0.06808437 -0.2673725 0.14992628 0.1084274 -0.14297077 -0.06197483 -0.19030072 0.020712152 0.1066805 -0.032178707 0.025710855 -0.08665498 0.031103078 0.048560753 0.14175373 0.27104673 0.14172524 0.19032608 -0.25986394 -0.28857085 0.09405997 -0.014304649 -0.10768316 0.019913027 -0.004183936 0.061272252 -0.29369318 0.04766315 0.02754595 -0.11497659 -0.09197872 0.036736388 -0.22072764 -0.030539906 -0.27466974 -0.088670015 -0.11645919 -0.03442033 0.048364207 0.052036628 -0.2041584 -0.0890612 0.082437105 0.22399682 0.023273056 -0.17331229 -0.08684524 -0.12465624 0.18048517 0.15067668 0.21664228 -0.45735112 0.2692619 0.2516533 -0.079208806 0.11983368 0.049332608 0.13919015 0.3201688 0.1102203 -0.1598032 -0.15656872 0.06059257 -0.27595767 -0.05109261 -0.12955804 0.0150232455 -0.20562074 0.31906363 0.21484847 -0.1636679
i 0.08579124 -0.15353522 0.14532387 0.17162168 0.030491048 0.21689677 0.09850071 -0.03441859 0.12754868 0.07854485 -0.063718274 0.26944476 0.13883087 0.16292652 0.12092153 0.049513735 -0.35713485 -0.07380078 0.013431112 -0.07059379 0.20382492 0.0149470605 -0.24065535 0.06838101 -0.376426 0.38805887 0.26093885 -0.40312588 0.12572451 0.22894636 -0.34405655 0.02117287 0.011127326 -0.2525314 -0.20267929 -0.37499923 0.085586764 0.072025575 -0.028773377 -0.09175217 -0.14791872 -0.054004148 0.20766218 0.15477945 -0.08297017 -0.00020648059 0.1284345 -0.0743652 -0.339893 -0.06824735 0.072790354 -0.147597 -0.09827369 -0.114853315 0.005115119 -0.14271489 0.24529772 -0.015054964 -0.08862493 -0.22117288 -0.078903824 -0.15407997 -0.037262432 -0.13225567 -0.18591478 -0.0069512017 -0.0482997 0.04666416 0.06428531 -0.1747329 -0.18825261 0.1530093 0.25019535 0.13215926 -0.015347618 -0.018832192 -0.19106537 0.012065393 0.0810764 -0.12915671 -0.45243868 0.07409338 0.27199277 -0.15171236 0.16402017 0.060268417 0.19184433 0.26624554 0.20890296 -0.028436264 -0.19546644 0.029902337 -0.17480354 0.07310163 -0.08564797 0.021542743 -0.0030476353 0.25609583 0.053997647 -0.0931804
s -0.038906075 -0.19186044 0.058106318 0.034708466 0.115723334 -0.05148212 0.19656909 -0.036778096 0.2144819 -0.031298615 0.10551325 0.07181609 0.1356639 0.06627228 0.095314175 0.2233329 -0.06858552 0.03285247 -0.030802274 0.12340899 0.14025427 0.15989256 -0.089216724 0.038588263 -0.14061545 0.18755326 0.095213935 0.0013497722 0.082043424 -0.023433786 -0.2122101 -0.01430143 -0.08398005 -0.013458209 -0.009350313 -0.11256453 0.12198539 -0.008325632 -0.017762495 0.23063074 -0.03340255 -0.005555744 -0.075714335 0.19716592 0.21898748 0.06973767 0.2705313 -0.14624457 -0.16610841 0.09301039 0.13343658 -0.09647653 0.15495495 -0.23481649 0.12357538 -0.2015125 0.18966414 -0.06488622 -0.04613218 -0.031202234 0.007159134 0.005381707 -0.14700487 -0.19526857 -0.17941949 -0.09576967 0.076152846 0.08654619 -0.15737411 0.03609946 0.021728737 0.06443218 0.056605686 0.05138919 -0.12325241 -0.19474089 0.056729276 0.12273643 0.12193133 0.055633757 -0.20060377 0.08457941 0.21545549 0.10326889 0.010303045 -0.018707287 0.119305335 0.36140934 -0.03586475 -0.40713573 -0.2681094 -0.07707229 -0.15150537 -0.09441615 0.010284476 0.03640932 -0.29858735 0.30975756 0.2780172 0.05371121
r -0.20327458 -0.23636568 0.09384572 0.031158773 0.2289692 0.0303982 0.16613124 -0.10020323 0.31345224 -0.14411947 0.10943919 0.0010986998 0.11934069 0.0040077274 0.055554245 0.15027158 0.024243388 0.0668375 -0.27703223 0.22066317 0.23936762 -0.14624953 -0.11353286 0.29784188 -0.30960435 0.41315463 0.076330535 -0.21461122 -0.2324101 0.15791667 -0.33390176 -0.071163915 -0.18273494 -0.3676166 0.055333722 -0.16521733 0.06673048 0.073422216 0.13395134 0.26863196 0.16332804 0.03315188 -0.109662294 0.18849386 -0.11014484 0.25272954 0.2304268 0.104182936 -0.067244954 0.022285644 0.3289033 -0.22867307 0.08606067 -0.35269985 0.0996878 -0.07968207 0.2624428 0.14367388 -0.11171791 -0.24831973 0.09861369 0.11365819 -0.30176517 -0.17232881 0.026358908 -0.03730847 0.20284083 0.008373554 -0.22996326 0.0010437907 -0.23413369 0.07686755 -0.036691856 0.14172187 0.23351674 0.01841283 -0.07065376 -0.10166102 -0.057834752 0.00158888 -0.06887049 -0.099017456 0.20875743 0.16159712 0.040514786 0.16780278 0.18985543 0.29391092 0.0068786386 -0.28702593 -0.19144356 0.20293295 -0.0945797 -0.14578435 -0.019351669 0.21579725 -0.20739892 0.26606876 0.24787079 0.23119392
t 0.051571563 -0.044262588 0.19267252 -0.071697436 0.02582553 -0.09823833 0.29404947 -0.12359169 0.08968029 -0.037464995 0.15589008 0.22228947 0.13961896 0.16822383 0.083594844 0.119774796 -0.122996986 0.021110581 -0.2280308 0.085657895 0.19839115 0.13722587 -0.025366398 -0.08281521 -0.04566757 0.18459238 0.046905044 0.07509397 -0.118559904 0.1488687 -0.27900502 0.08711708 -0.035022885 -0.09289099 -0.012177606 -0.14905247 0.1327146 -0.07145163 -0.11523198 0.02790688 0.04719339 0.1168076 -0.11890315 0.06262999 0.0504405 0.30570874 0.020443667 -0.0321049 -0.045151446 0.22021271 -0.040174533 -0.13789885 0.15037419 -0.09608593 0.24317545 -0.108704746 0.38741362 -0.2926996 0.18834542 -0.08676612 -0.060467556 0.04454685 -0.10190365 -0.0539734 -0.17071685 0.038140904 0.1986577 0.19001889 -0.08690834 0.030704757 0.19136818 0.003452501 0.02443334 -0.23380738 -0.18563004 -0.2318813 0.20030041 0.15944844 0.155246 0.16214003 -0.3249658 0.16820632 0.016981067 0.17361481 0.016795741 -0.051644772 0.016251558 0.28947088 -0.25431404 -0.16662377 -0.3515427 0.041902866 -0.11543044 -0.0009131393 -0.0049342373 -0.14659387 -0.18363301 0.2578201 0.13474533 0.043137334
n -0.15715796 -0.03269516 0.19859166 0.1088939 0.15357296 -0.3610224 0.21020764 0.10423414 0.12183934 -0.19091098 0.29871312 0.26966166 0.0021514257 0.02403689 0.13967694 0.3098722 0.017385919 0.05639457 -0.08953687 0.16507633 0.23461512 -0.09380742 0.06877612 0.1392994 -0.0985702 0.2680957 -0.06640008 0.10189534 -0.041834775 0.07114711 -0.14174774 -0.035780665 -0.02987549 -0.16890872 0.18154193 -0.19957766 -0.06486757 0.12269939 0.020898655 0.16835368 0.15734853 -0.031830646 -0.17632274 0.02092848 -0.024912698 0.3019352 0.17609532 0.0895882 -0.2176814 -0.013572483 0.31280953 -0.0025129502 0.048557546 -0.31267792 0.15243411 -0.17912088 0.10530732 -0.1536216 -0.042834997 -0.07519403 0.21967317 0.12131074 -0.044528674 -0.09535464 -0.28027046 0.10899969 0.090873145 0.27388793 -0.043249074 0.073419765 0.05525186 0.04717896 -0.1870437 -0.15909097 -0.10631558 -0.15548371 -0.012766979 0.2547215 -0.010949443 -0.0011207255 -0.061634373 0.031083426 -0.028094629 0.0808704 0.06582945 -0.10414855 -0.16068223 0.17076033 0.01232191 -0.3292273 -0.17298225 0.1287373 -0.07234306 -0.13679287 -0.05272441 0.14064497 -0.2483139 0.33431894 0.26566845 0.18120767
l -0.048551634 -0.19914386 0.08222875 0.051749595 0.025738852 -0.10973121 0.23748897 0.0019035722 0.03639035 -0.047182072 0.32025215 0.18143576 0.11012035 0.18656953 0.08596237 0.107006304 0.011547315 0.11148613 -0.06996193 0.16087556 0.20308693 -0.06203771 0.014369187 0.029327983 -0.05201956 0.24572338 0.048274938 0.019238722 -0.11653762 0.08461819 -0.086142786 0.00086884294 -0.096784584 -0.042108785 0.14708292 -0.17394486 0.06557134 0.10651491 -0.041283846 0.18441342 0.18713129 0.11261896 -0.09630408 -0.0010789753 -0.0053827087 0.23745346 0.14494638 0.16481566 -0.035824053 -0.032790285 0.1491452 -0.1259114 0.06675228 -0.36129922 0.12302404 -0.10279252 0.14231992 0.09799287 -0.26159072 0.05925392 0.10463807 0.23049992 -0.096925534 -0.1846797 -0.15399337 0.03013857 0.20515685 0.07961617 -0.12642978 0.10915804 0.01608021 0.10146244 -0.024828238 -0.028264046 -0.1647261 -0.077488504 0.11618961 0.08667462 0.019568583 0.05047856 -0.08995657 0.0225545 -0.029513646 0.027166415 0.0334521 -0.07422752 0.05197258 0.19981116 -0.019706763 -0.2139917 -0.27181867 0.10430023 -0.01795804 -0.058455013 -0.13021705 0.08123328 -0.052179098 0.27725515 0.053214464 0.22276893
c 0.08000457 -0.08330582 0.2453407 -0.2931559 0.028822 -0.30987367 0.062729925 -0.083584264 0.10434201 0.020334028 -0.01850615 0.15778394 0.1939753 0.13978748 0.15650219 0.09595791 -0.062376272 -0.035523467 -0.07557824 0.10982105 0.22416735 0.076135226 0.02041246 0.104193695 -0.0072231013 0.12848441 0.12529355 0.01109697 0.13087094 -0.00732543 -0.28233492 -0.072510764 -0.0037715344 -0.071858674 -0.09532995 -0.13438103 0.15744628 -0.050115816 -0.037386745 0.109830126 -0.007858402 0.14937218 -0.02855836 0.12448153 0.29072925 0.06363767 0.1306279 -0.122644186 -0.02280697 0.09380472 0.009748608 -0.00087719946 0.046217233 -0.071330614 0.105685316 -0.23214665 0.23194784 -0.03208675 0.18516053 -0.09387045 -0.053946797 -0.062960155 -0.12759787 -0.14678265 -0.15690675 -0.13926685 0.12854733 0.02502689 0.01951735 -0.059447367 0.017551314 0.10849616 0.06442824 -0.1638584 -0.18980858 -0.043902557 0.09503061 0.042790785 0.11453516 0.13607611 -0.21599218 0.080438614 0.20710008 0.23613109 -0.19927496 -0.09485832 0.13768028 0.20073548 0.047885954 -0.26737127 -0.15453348 -0.15976828 -0.1515766 -0.013798511 -0.13175327 0.022583863 -0.17367665 0.3059841 0.08350704 -0.03470979
m 0.044085637 -0.15230167 0.13428076 -0.01328807 -0.012635109 -0.15117355 0.20662898 -0.050564382 0.04522055 0.008407537 0.21055092 0.14035371 0.1614966 0.18903442 0.19000924 -0.0060392763 -0.014484248 0.06842681 0.015658347 0.035436638 0.265111 -0.07612328 0.03803459 0.11329411 -0.11816754 0.36420166 0.2793012 0.008441783 -0.15503058 0.06341103 -0.11931916 -0.10939805 -0.00893742 -0.108218364 -0.037419055 -0.1944905 0.12317719 0.14205419 -0.03279027 0.21149494 0.11442936 0.19663261 -0.096492596 0.08218529 -0.027971566 0.07933011 0.014139461 0.16922581 0.021938158 -0.007847776 0.13709748 -0.12844145 0.024598267 -0.3352289 0.10471103 -0.10531424 0.21474554 0.09260015 -0.1821319 0.02180027 -0.040729176 0.19193923 -0.054027162 -0.04968127 -0.24506718 -0.0049960897 0.2707473 0.036457825 -0.023052951 0.10886628 0.05585261 0.09242132 -0.102869816 -0.014259061 -0.23200555 -0.0034001905 0.1429071 0.08826313 0.07309256 -0.045844533 -0.16386724 -0.0034340834 0.01733052 0.05073898 -0.017130718 -0.15897289 0.069454804 0.08487128 0.01977906 -0.106472515 -0.2629216 0.05996235 -0.1428506 -0.012611174 -0.25503466 0.04196877 0.054529205 0.28759983 0.05229882 0.1815697
d 0.017383365 -0.13716057 0.2949029 -0.06199102 -0.08093327 -0.18764783 0.18196931 -0.07593696 0.0760895 -0.1295881 0.24118142 0.2014097 0.19134977 0.1678178 0.09810296 0.18012947 -0.10538177 0.046037067 0.0015852929 0.04068107 0.2313376 -0.048293427 2.8288754e-05 -0.05518404 0.009440827 0.23652285 0.14618093 0.047574192 -0.009265087 -0.021858027 -0.13267243 0.013915686 -0.13707317 -0.034453746 0.0815704 -0.19007906 0.12735792 0.054074932 -0.02511241 0.15683855 0.07042538 0.08108197 -0.027077124 0.08774708 0.025747458 0.09877187 0.13808525 -0.015637197 -0.0667053 0.06207111 0.09061058 -0.0707796 0.06739539 -0.10915792 0.13443996 -0.1593033 0.24231735 -0.10487516 -0.062210716 0.09420475 -0.061529275 0.20280473 0.07039333 -0.18639512 -0.32782438 -0.04117493 0.13286397 0.07464029 0.041200798 0.08440293 0.20271082 -0.010833351 -0.06288818 -0.14645678 -0.2694866 -0.14088172 0.1660197 0.13049613 0.045604825 0.0490851 -0.16395184 0.045036666 0.09743542 -0.02892811 0.0551652 -0.039587248 0.026036907 0.063418694 -0.08332066 -0.2575671 -0.21684201 -0.036762215 -0.0073884944 0.019529132 -0.14741892 0.06451546 0.10173043 0.27500647 0.105756894 0.15968797
u -0.0073406594 -0.028009437 -0.17585872 -0.107637174 0.01027438 -0.023028746 0.1269347 0.111341774 -0.070842884 0.17183873 0.032443807 0.2068273 0.10692973 0.23336956 -0.08387705 0.18644425 -0.13910075 -0.09687045 -0.04263326 0.0030651574 0.22196819 -0.055053424 -0.15223096 0.06929536 -0.06537478 0.0436268 0.08306868 0.07537791 0.010320458 0.21634068 -0.1347581 0.10239488 0.1128446 -0.1567407 -0.007041023 -0.07048346 0.03133988 0.007886676 0.027175495 -0.06903642 -0.08509622 0.0583257 0.22452044 -0.0018463854 0.08749768 0.27111855 0.04505391 -0.18933856 -0.009482135 0.1466052 0.051436044 -0.15379842 0.20748207 0.009357561 0.011487865 -0.25649017 0.07785343 0.022872359 0.0094504235 0.05409313 -0.020444114 -0.06928668 0.098536044 -0.06860429 -0.13906056 -0.046036597 0.13984309 -0.087815635 -0.020382917 -0.20997903 -0.06458964 0.018012868 0.30056703 -0.11324126 -0.29543832 -0.03672114 -0.0069154273 0.11037812 0.08863553 0.20385626 -0.41320607 0.28151765 0.17076047 -0.010347054 0.028610142 -0.11256742 0.12744789 0.15663426 0.14239341 -0.0073220045 -0.18215615 0.06915716 -0.14931116 -0.1470049 -0.35397407 -0.0033556526 -0.21471384 0.28188688 0.057611402 -0.24946018
p 0.07161328 -0.18414274 0.124919794 -0.2135404 -0.014137368 -0.24078125 0.23159668 -0.15286137 0.01840469 0.12833591 0.11921622 0.1747227 0.26824084 0.21670537 0.28430748 0.03754729 -0.11138533 -0.038502723 0.057748184 -0.031249322 0.28353658 0.14727202 0.08045136 0.085289866 0.05558851 0.2784051 0.30122817 0.14110534 0.040095095 -0.0065152207 -0.09707669 -0.097474515 0.13208471 -0.06749392 0.0009859109 -0.21851803 0.12911223 0.086672634 -0.081714064 0.0845177 0.029532766 0.08595427 -0.09070171 0.15308212 0.18268627 0.09285502 -0.11547787 0.027929712 0.04343557 0.020659618 0.065448344 -0.07095329 0.089826666 -0.23045984 0.1349074 -0.031824708 0.18186863 -0.052882556 -0.05481395 -0.028017564 -0.04275991 -0.10879742 -0.031883456 0.091686316 -0.2179221 -0.036103304 0.22455652 0.060402837 0.09004586 0.04117303 0.051705968 0.0116814235 0.062016785 0.06862172 -0.261973 -0.053262074 0.053808287 0.20308614 0.3252411 0.05030674 -0.25896332 0.05991141 0.115146324 0.23390774 -0.12036977 -0.25397167 0.086755626 0.13543075 0.06880622 -0.10234195 -0.26424524 -0.0261892 -0.23767613 0.016381156 -0.21006028 -0.06903735 -0.05201222 0.28107873 0.1360687 -0.16828234
b -0.104696065 -0.07081813 0.19224901 -0.20937015 0.05933781 -0.25705627 0.21469428 -0.18465026 -0.06288924 -0.0029247876 -0.15480913 0.23668596 0.2778858 0.11907464 -0.012278035 0.33900526 -0.01676178 -0.17450097 -0.12535073 -0.029635707 0.36625585 0.1223491 -0.14504716 0.22621936 0.022769647 0.15206039 -0.008880497 0.113687225 0.21841896 0.07502701 -0.11102672 0.065996744 -0.11003207 -0.18173969 0.103972204 -0.18277985 0.016486302 0.07203452 -0.012486204 -0.03755638 -0.02173766 -0.063362524 0.02049098 0.06001514 0.10021142 0.13000533 0.010651847 -0.025989538 0.018391406 -0.04659886 0.117142454 -0.0346855 -0.03494893 0.11306936 -0.038175322 -0.29995254 -0.03789865 0.10137964 -0.08394757 0.26574087 -0.020555396 0.040980563 0.06782771 -0.015778868 -0.19354145 -0.12546737 0.0937983 0.17950109 0.075521976 -0.19649467 -0.16502936 -0.16004442 0.20488039 0.17871623 -0.15691493 -0.18356697 -0.089240305 0.063799255 0.09714829 0.1172592 -0.22972311 -0.053596426 0.20857319 0.2280078 0.11659212 -0.09508251 0.09388824 0.011119666 0.1373837 -0.15320948 0.144054 0.08480063 -0.08527917 0.04873432 -0.20346624 -0.079291925 0.20172316 0.16906442 0.15233266 -0.16405763
g 0.08890391 -0.25260854 0.26048005 -0.07638261 -0.003951663 -0.15013239 0.14083925 -0.007170578 0.03958312 0.074520186 0.1114248 0.27694714 0.2345191 0.27585545 0.09477804 0.11210592 -0.1670766 0.07934381 0.019158963 0.16975617 0.17504759 -0.045596484 0.0031231304 -0.0157248 -0.088738255 0.32086805 0.134235 -0.0036868881 0.11323218 -0.04317198 -0.20103405 -0.051753093 -0.031027427 0.007400271 0.034389198 -0.16018811 0.1913402 -0.1699395 -0.06616845 0.110246144 -0.02580875 0.0273535 0.16841222 0.04019162 0.22346082 0.023787402 0.12806514 0.0035551253 0.05098447 0.14723533 0.030489128 0.06401364 0.07712204 -0.13949172 0.057822578 -0.17066292 0.20283782 -0.05250878 -0.080606714 -0.057363413 -0.0042529893 0.035941854 -0.023998281 -0.22075866 -0.09693966 -0.062186863 0.0851893 0.0710045 0.025248092 0.060380198 0.033611633 0.17308885 0.10703289 -0.11702216 -0.25705183 -0.09604693 0.1314916 0.09430825 0.021011824 0.054558106 -0.20141174 0.06540118 0.11449064 0.06259666 -0.058402438 -0.17886415 0.18739349 0.094575256 -0.012264629 -0.13857798 -0.19965805 0.037693426 -0.09540148 0.016736949 -0.11653018 -0.11143459 -0.0803067 0.12832536 -0.027294705 0.028843135
h -0.08521921 -0.43004262 -0.0021144233 -0.13937066 0.005849196 -0.08581845 0.13572668 -0.032554295 -0.06381067 0.047157533 0.25402844 0.1734149 0.09236836 0.2269508 0.13458976 0.20560902 -0.13976839 0.07258417 0.059327792 0.25786886 0.18601635 -0.030350339 -0.05299338 0.14910506 -0.058754727 0.31133848 0.20966767 -0.004724338 0.028380662 0.035884004 -0.09118581 -0.18648262 0.00580773 -0.13068683 0.19442606 -0.20906436 -0.07478274 0.11055508 0.0381673 0.03384025 -0.06269051 -0.022189246 -0.04817212 0.055856902 0.014001538 0.19950208 0.01544642 0.036800805 0.090606295 -0.025884375 0.1979778 -0.13444613 0.21743447 -0.21799368 0.059929416 -0.04718893 0.15091193 -0.0012309143 -0.18942167 -0.02376919 0.14182714 -0.08343895 -0.062540546 -0.085126966 -0.06445169 0.11243091 0.20191188 -0.02417418 -0.08138987 0.06261451 -0.02344868 0.09126904 0.08156025 0.15367097 -0.16060902 -0.08620386 -0.07366721 0.17839305 0.07410673 0.049605362 -0.108898334 -0.0040154723 0.108226225 0.05885973 -0.0034900478 -0.095353805 0.14464733 0.19016711 0.05588286 -0.22560573 -0.2297222 0.041668776 0.041907966 -0.09816554 -0.13897483 0.13410582 -0.25734228 0.15941775 0.12405148 -0.06881953
k -0.09215546 -0.24799444 0.023569463 -0.07086082 0.035207786 -0.06996515 0.15231064 0.011192847 -0.08132726 0.08835065 0.12605287 0.18704653 0.169136 0.22775751 0.03709306 0.1858321 -0.06178588 0.07635303 -0.020812545 0.15504664 0.16563979 -0.004367251 -0.042248104 0.05405794 -0.0071436176 0.3036857 0.08139407 0.049530808 0.07760046 -0.013812358 -0.07118335 -0.051371977 -0.050560176 0.0016788488 0.17559248 -0.14872405 0.066718094 -0.041319244 -0.030021295 0.039744146 0.023707373 -0.030719196 0.09004138 -0.0082294755 0.12048634 0.1302152 0.10688799 0.025753187 0.052864775 0.034978934 0.12825412 -0.015645921 0.13837712 -0.19301565 0.022279933 -0.14168285 0.051956333 0.039628316 -0.16015643 0.07203872 0.0875609 0.036005765 -0.027894925 -0.1381202 -0.08372142 0.0018328312 0.14934878 0.07644203 -0.076377496 0.016239043 -0.050764423 0.08129476 0.18336894 0.05499936 -0.21597047 -0.14055434 0.0052526584 0.13710757 0.030599942 0.064412616 -0.12328008 0.09640631 0.063444495 0.08447667 0.03470835 -0.14717673 0.12075886 0.15262917 0.031789325 -0.19177091 -0.15516984 0.088593245 -0.06020588 -0.06793137 -0.12204909 -0.0470094 -0.155208 0.17068525 0.059937343 -0.019082757
y -0.03304683 -0.24198124 0.10167503 -0.13710599 0.04410612 -0.08346686 0.11977929 -0.068828836 -0.082509235 0.14051656 0.09369337 0.22345321 0.20914675 0.27898887 0.044384174 0.10451268 -0.13117087 0.040781535 -0.15194896 0.21966021 0.21917139 0.18355171 -0.15484741 0.049834482 -0.090931945 0.18305424 -0.024018737 -0.10375332 0.24082468 0.024596108 -0.26619908 -0.064383775 -0.11641643 -0.115010984 0.1428091 -0.20327704 0.11970474 -0.0404396 -0.14467633 -0.028246716 -0.05099949 -0.01716773 0.08336503 -0.055336736 0.18651785 0.02662152 0.013132311 0.0017866433 0.029918425 0.064123385 0.012834428 -0.0156074185 -0.022298945 -0.13634722 -0.03345883 -0.19295157 0.051964726 0.064791106 -0.11086943 0.036432005 0.009650755 -0.016004488 -0.10274735 -0.14189826 -0.09968405 -0.060301706 0.13413294 0.07714425 -0.07793404 -0.11132174 -0.086361594 0.11761092 0.21430156 -0.029785164 -0.18466778 -0.11574724 -0.032593075 0.068989605 -0.0028003578 0.17539974 -0.17489694 0.06118515 0.20741248 0.12677209 0.016121365 -0.074178405 0.16773063 0.19094107 0.069364324 -0.23906209 -0.15187147 0.0029179696 -0.020240748 0.08374939 -0.060633272 -0.08256757 -0.001965709 0.26923022 -0.0027070218 -0.039023764
f 0.014668905 -0.107221834 0.16447137 -0.26872578 0.017281312 -0.299774 0.10093116 -0.057283532 -0.08774917 0.12902893 0.12182817 0.23479006 0.2242874 0.24042939 0.18308444 0.075035445 -0.01800861 0.1616582 -0.05378137 -0.046837535 0.22277457 0.10698119 -0.03475638 0.1396006 0.16319972 0.19215883 0.07374807 0.027177125 0.05407101 -0.023786176 -0.083753444 0.039258666 0.09059716 -0.0067064073 0.043450657 -0.18125819 0.08067583 -0.06522509 -0.094865985 0.067238435 0.01954378 0.028229948 0.089013405 0.031953923 0.0092187105 0.12823088 0.03614065 0.044994846 0.007025591 -0.021992633 0.14171796 -0.02309716 0.18528858 -0.20936075 0.13768436 -0.07939527 0.15905213 -0.015559245 -0.058800597 0.04461056 0.07462226 0.04248818 -0.049244817 -0.026953027 -0.21038863 0.017589383 0.17225964 0.052272584 -0.009062194 -0.10318616 0.040749926 -0.00905727 0.14774683 -0.058274984 -0.3124769 -0.12755331 0.04914195 0.16960758 0.15783292 0.07482018 -0.2075715 0.16547477 0.060000326 0.1114354 0.017000498 -0.1389587 0.015033586 0.21574683 -0.01623313 -0.21697626 -0.25328428 0.032935794 -0.17343922 -0.020569284 -0.24502872 -0.032603648 -0.08584067 0.282617 0.14275417 -0.004787791
w -0.032410894 -0.22031659 0.031349532 -0.069770545 0.040971268 -0.0416638 0.27467644 -0.024408266 0.00839984 0.06603507 0.06471432 0.16886689 0.1117572 0.23479089 0.03883411 0.052291762 -0.10167857 -0.022046534 -0.08103379 0.25402072 0.26447392 -0.1496173 -0.011135708 0.11832451 -0.24274136 0.3273302 0.19808583 0.0500611 -0.02722104 0.17388767 -0.27209273 -0.11162222 -0.058076236 -0.1652996 -0.041349445 -0.15083158 0.10840928 -0.021151204 0.0009584433 0.008162052 -0.024023416 0.11074994 0.063289516 0.011398587 0.1524441 0.22021641 0.011773423 0.04346426 0.1301035 0.22987771 0.033823915 -0.03388422 0.08163596 -0.045810744 0.046392746 -0.20378843 0.26473555 -0.035665125 0.050475992 -0.06917049 -0.081634745 -0.017139712 -0.049723003 -0.14858711 0.005105913 -0.06717927 0.23580621 0.1280029 -0.019613322 0.032897525 -0.10110632 0.20694834 0.0799768 -0.051035676 -0.22436418 -0.08272468 0.108925454 0.013583037 -0.0075046574 0.08920874 -0.20445602 0.018522073 0.03331418 0.18777837 -0.10154185 -0.20173359 0.23025793 0.06616148 -0.04055833 -0.011391936 -0.08417345 0.06425156 -0.10467157 -0.061598323 -0.20367981 -0.10008356 -0.10821719 0.0958135 -0.03779756 0.023209685
v -0.08403122 -0.16335614 0.08348566 -0.19038562 0.04106152 -0.32183415 0.18678573 0.029350026 -0.042176303 -0.017399698 0.19469562 0.22517149 0.094950974 0.24112675 0.11056021 0.11713126 -0.04177587 0.114533246 -0.03556987 0.16446503 0.34059963 -0.24100105 -0.04950593 0.26012352 -0.012684174 0.3080495 0.15489182 0.068389244 -0.01437787 0.15035848 -0.1740834 -0.06955549 -0.018047847 -0.15902206 0.042318694 -0.1373041 0.064717636 0.028410342 0.07732284 0.07361216 0.0446535 0.070599206 0.115606144 -0.039243985 -0.0059865364 0.37689275 0.09760193 0.108329736 0.07596615 0.094623886 0.23176576 -0.06295208 0.24806896 -0.15328482 0.15757313 -0.12515256 0.31348795 -0.03184009 0.024533885 -0.021165079 0.032174032 0.084867835 -0.028839177 -0.11145576 -0.095508486 -0.012098987 0.2173698 0.010073884 -0.053183615 -0.0449915 -0.027361298 0.10048844 -0.025326002 -0.15006424 -0.27550948 -0.036014616 0.09190896 0.023400182 -0.011278867 0.09508371 -0.07554621 0.008000784 0.003185623 0.0996707 -0.08002428 -0.19750333 0.10825231 0.026937768 -0.0031855034 -0.13091448 -0.14388014 0.06288034 -0.10000085 -0.12880467 -0.3304057 0.0855 -0.12943777 0.16789454 0.10248381 0.13539939
z 0.04188836 -0.25111985 0.1850754 -0.12807718 -0.02802349 -0.21350771 0.18805392 -0.029564725 -0.08257791 -0.00015464751 0.19024524 0.2679126 0.12381543 0.23373671 0.0101947505 0.19389139 -0.14537172 0.006021071 -0.080028825 0.24746802 0.24905951 -0.040212262 -0.19987018 0.058766637 -0.080590755 0.2596077 0.04789264 -0.0037278347 0.14630868 0.1496338 -0.13641201 -0.046185575 -0.09200375 -0.09024734 0.13797255 -0.09111029 0.060843553 0.025527883 -0.028364537 0.019342938 -0.054642387 0.042264167 0.04133608 -0.15996055 0.07232787 0.20200618 0.029764902 0.107544094 0.06997305 -0.004130755 0.00482789 -0.07609163 0.04558279 -0.10975031 0.008419858 -0.24843715 0.1489674 0.11128129 -0.28686857 0.18100539 0.06082298 0.17388417 -0.060372423 -0.10895816 -0.08935944 0.026322888 0.12919392 -0.017875263 -0.1479803 -0.024543645 -0.02115278 0.09387045 0.087826714 -0.02891458 -0.16351114 -0.09143618 0.07506968 0.03647387 -0.055852633 0.10994188 -0.17940353 -0.10731756 0.11150333 0.034309812 0.024537541 -0.15771544 0.17959473 0.061527524 0.12555854 -0.1380637 -0.15631582 0.056146108 0.096366204 0.060364068 -0.114323206 -0.0599136 0.020379739 0.10167063 -0.082642525 0.018131457
x -0.07195969 -0.10384891 0.042889006 -0.18151927 0.058367416 -0.15749595 0.18476525 0.0072446307 -0.13384558 0.099668965 0.07753233 0.1848738 0.018788917 0.16755322 -0.020258257 0.10696196 -0.027385132 0.056112878 -0.24158946 0.19012064 0.19634788 -0.040901687 -0.19519567 0.15179941 -0.13403729 0.31337887 0.032950733 0.015265252 -0.0333566 0.2214465 -0.15526561 -0.025386147 -0.009238737 -0.13649464 0.034074273 -0.04941042 -0.024661332 -0.060978446 -0.041046545 -0.018040199 -0.11073333 0.070340194 0.0476421 -0.16103448 -0.070560925 0.22872673 -0.047350116 0.094769955 0.13895798 0.069424845 0.053643215 -0.07156436 0.1256253 -0.07155963 0.021339232 -0.30526027 0.15205444 0.04749555 -0.114309244 0.1608413 0.1001255 0.18149936 -0.098815694 -0.009411489 -0.060829867 0.08313096 0.25675836 0.080985606 -0.22605076 -0.08516066 -0.08880107 0.09695035 0.14704269 -0.0479482 -0.21674848 -0.18541498 0.07627307 0.086630195 -0.090367906 0.07555553 -0.26950395 0.0037829576 0.0062968684 0.16311868 0.046255223 -0.18305984 0.12323938 0.17274247 0.022727482 -0.14139862 -0.11391154 0.14688766 0.020521311 -0.052950837 -0.23878042 -0.14168318 -0.16787106 0.114123955 -0.06992749 0.0010571572
j -0.11344891 -0.18714751 0.07144669 -0.15941001 -0.030485662 -0.053612985 0.122495055 -0.05351344 -0.16589901 0.13324116 -0.029648086 0.17084533 0.17010163 0.17602259 0.09005554 0.11342317 -0.12043303 0.14998966 -0.19111405 0.08457623 0.23994367 0.13032182 -0.25174272 0.2295933 -0.13076717 0.52357566 0.107177734 -0.21178748 0.12441281 0.080550276 -0.19739726 -0.09788506 -0.09045887 -0.1540241 0.05031309 -0.22327968 0.044423066 -0.08468933 -0.0853702 -0.10075579 -0.14919342 -0.075450525 0.096049815 -0.07740641 -0.09985836 0.044179592 -0.022841303 0.07250386 0.10696339 -0.040484484 0.11261889 -0.063154705 0.049994186 -0.070493095 -0.02597128 -0.16760316 0.19162714 -0.0047643785 -0.07365538 0.018324474 -0.017169995 0.019090423 -0.0963545 -0.039931536 -0.10197194 0.06765312 0.18561673 0.08432698 -0.097390726 -0.14222638 -0.06651065 -0.0027934965 0.21004462 0.12962951 -0.14926945 -0.18246944 -0.063895136 0.074719615 -0.021651028 -0.019405955 -0.2441432 0.028069695 0.15518633 0.08285815 0.15891278 -0.09701887 0.17385258 0.13913815 0.04025835 -0.13942638 -0.12102695 0.16578546 -0.06316902 0.09375757 -0.13349275 -0.15166284 -0.0199566 0.16333106 0.024514064 -0.047834076
q 0.08517465 -0.18712334 0.1849958 -0.47358313 -0.07627318 -0.39042506 0.117762946 -0.18213409 -0.098908044 0.11216427 0.080832936 0.16040829 0.1665408 0.14162172 0.16428104 0.10678668 -0.11821475 0.064479135 -0.19709395 0.07359679 0.31345415 0.16939752 -0.34538767 0.20504838 0.12362731 0.29442075 0.03173975 -0.035841852 0.25504336 0.08791239 -0.15142202 -0.010957913 0.048224624 -0.09918974 0.007594991 -0.07608966 0.057423815 -0.012034671 -0.015818508 -0.030550223 -0.16893914 0.022423409 0.004079535 -0.11861544 -0.0067758868 0.21070537 -0.08492238 0.05501255 0.10049278 -0.080453895 -0.0008096878 -0.08249105 0.16347167 0.026842758 0.13851844 -0.22064017 0.34080777 0.054017182 -0.20052475 0.15195817 0.06476622 0.069980755 -0.19358444 0.06422441 -0.056049485 0.039506163 0.18571527 -0.10324722 -0.17132294 -0.19490315 0.016792819 -0.07952712 0.15284674 0.09837393 -0.113749884 -0.15974198 -0.014858386 0.07640661 0.09495512 0.12663317 -0.28643838 -0.1061391 0.18800278 0.15553932 0.05046154 -0.1310227 0.21158104 0.12388787 0.088728495 -0.2424983 -0.14745952 0.06996265 -0.07326424 0.12150764 -0.15159217 -0.15829095 -0.009338701 0.06766454 0.06282346 -0.101689786
- -0.11717634 -0.1511274 -0.06912113 0.110410266 0.21339259 -0.19827528 0.222841 0.27835524 -0.071811914 0.3743894 -0.07306852 0.41545373 -0.09557201 0.09840342 0.07054609 0.35558453 -0.041078966 0.36687267 -0.28313217 -0.007988353 0.24761288 0.27538925 -0.4406256 0.43250605 -0.63512784 0.5778142 -0.01618778 -0.2395711 -0.12694097 0.28449214 -0.19538042 -0.027429234 0.18842965 -0.29880726 -0.19393098 -0.051112987 -0.085430816 -0.29605362 -0.07441005 0.30162883 -0.45688003 -0.0719094 0.13268863 -0.025598688 -0.2654899 -0.022221206 0.06752689 -0.0013421029 0.078556836 -0.028370688 0.48761392 -0.16265678 0.1966587 -0.30011684 0.009538995 -0.55096006 0.2632322 0.0041703377 -0.45863858 0.0184351 0.27998433 0.28525308 -0.15600659 0.019671477 -0.38906148 0.19986287 0.18396893 0.0697025 -0.38594452 -0.16953602 -0.08621148 0.003648659 -0.001522291 -0.019719683 -0.24366117 -0.2920398 0.017696729 0.31041032 -0.15943745 -0.12703171 -0.61213446 -0.06025422 0.37902242 -0.038015876 0.3569995 -0.28402287 0.11751555 0.2463137 0.21479304 -0.36196494 -0.3637389 0.5037049 -0.19460398 -0.05049795 -0.50023526 -0.12637198 -0.39716318 0.29907042 0.18811636 -0.014217993
1 -0.10578755 -0.79974693 1.559121 -0.2144091 1.060053 -0.16257158 0.17087193 -1.1313504 -0.26788226 -0.12751733 -1.6388621 1.5777588 0.04599483 0.9014916 -0.20720752 1.2500955 0.11656526 -0.62581056 0.23003334 -0.18279476 -0.011284278 0.8369775 0.47037265 0.29919824 -0.9729427 -0.70086855 0.9217705 -0.2889931 -0.668005 0.6214847 0.007966269 -0.25697592 -0.28041705 0.102639906 -0.29690814 -0.60025036 0.09799304 0.6236977 -0.59013313 0.19110909 -0.1142138 0.7525327 -0.7196503 0.852028 0.39560872 -0.50143874 0.34653726 -0.35126776 0.20730746 -0.67594475 0.45674738 -0.8853343 -0.5178775 -0.553561 -0.37661672 -0.881321 -0.7450074 0.7587129 -0.0968869 1.0821803 -0.14401203 0.39256543 0.12500045 -0.034077596 -1.4817541 -0.28491715 0.0375107 0.6038841 -0.24854523 0.4059825 -0.7501047 0.18315165 0.059982356 -0.28362542 -0.92431307 -0.19872396 0.51872116 -0.07960054 0.34360674 -0.11446986 -0.508664 -0.31784967 0.6231811 0.57192177 -0.62342876 -0.4277829 -0.44520327 0.84439784 0.45644072 -0.50048 -0.23198098 -1.2178423 0.96614736 -0.3221664 -0.93311435 1.0341275 0.033835806 0.9761267 -0.39482442 -0.57526934
2 -0.2119582 -0.5973319 0.691543 -0.1126316 0.9476311 0.42381942 0.42022592 -1.0399522 -0.5305956 0.19444431 -1.1866939 0.9496192 0.43689403 1.1287516 -0.47035024 0.54501605 0.27803057 -0.39775372 0.01168412 -0.2989614 0.17850615 0.8408311 0.14007647 0.18836303 -0.46075502 -0.91193557 0.90066636 -0.16927077 -0.7027362 0.846808 -0.05345008 0.1645284 -0.53604585 0.13150117 -0.2524094 -0.34147793 0.46316516 0.37626457 -0.6525121 0.24587427 0.2505632 0.7811102 -0.14881226 0.6237348 0.40854985 -0.1101658 0.27478778 -0.11403407 0.31892878 -0.32594323 0.1511594 -1.1061523 -0.13929796 -0.84624654 -0.332029 -0.37457997 -0.6753213 1.0793401 -0.11087725 1.2135605 -0.4985108 0.564934 0.09151458 -0.0075201932 -1.068123 -0.60166216 0.3580061 0.14513935 -0.45512918 0.049329467 -0.8236405 0.16156751 0.55231977 -0.16450316 -0.89239633 0.04749353 0.7303606 -0.6431723 0.48771316 0.34656194 -0.3058962 -0.063466854 0.5117423 0.6061756 -0.553581 -0.21688451 -0.015675532 0.82723856 0.3247579 -0.18717809 -0.4916446 -1.1227667 0.6335212 -0.23666503 -0.89298034 0.7245715 0.48824292 1.0768734 -0.34752417 -0.2766324
0 -0.18527375 -0.8670408 1.6205827 -0.18734664 1.2826948 -0.22097297 0.13478945 -1.106813 -0.24750154 -0.15805838 -1.995448 1.7905121 -0.08404253 1.0178026 -0.22427627 1.4397779 0.14725792 -0.6481898 0.26091656 -0.1556429 0.03553785 0.8309699 0.5262068 0.6023852 -1.377152 -0.5866043 1.0382582 -0.40093744 -0.84557486 0.7472878 -0.05261586 -0.4544033 -0.29529428 -0.031994455 -0.44514507 -0.55628115 0.15283474 0.6404921 -0.5768324 0.22272944 -0.25326023 0.80527467 -0.77449626 0.8885105 0.3703965 -0.5545779 0.4389142 -0.382733 0.36354133 -0.6903851 0.7231771 -1.0087689 -0.5564704 -0.615143 -0.478802 -1.0259113 -0.77030504 0.80119437 0.09451197 1.103789 -0.2975916 0.4148677 0.12933245 -0.024785155 -1.6952379 -0.36185893 0.07150217 0.6909213 -0.39120224 0.45117205 -0.91021466 0.20190828 -0.13610604 -0.49261656 -1.0866657 -0.13018823 0.64359486 -0.15528797 0.23335019 -0.23228072 -0.4674538 -0.46080324 0.7446005 0.6683394 -0.8222074 -0.6140208 -0.5443572 0.79438955 0.5253872 -0.4667565 -0.22347988 -1.3115349 1.0814224 -0.4537901 -1.2065952 1.245113 -0.102546416 1.0353687 -0.42008886 -0.6167847
3 0.062847674 -0.84112215 1.3454363 0.14378679 0.90019566 0.08388339 0.10082598 -0.7911489 -0.2739435 -0.017696038 -1.1061938 1.5360744 -0.08778637 0.95053583 -0.2798377 1.0097679 0.04561945 -0.48954812 0.23978157 0.20211041 -0.08889525 0.59537923 0.54449475 -0.0024111732 -1.1060934 -0.8095228 0.6695251 -0.26606962 -0.6658734 0.5257598 -0.17803638 -0.33210376 -0.33385703 -0.02369803 -0.11986225 -0.5787453 -0.036332157 0.5480639 -0.5612368 0.2449682 -0.06208074 0.77734745 -0.6516375 0.6626688 0.44793725 -0.5225205 0.26436916 -0.2544453 0.15684128 -0.39837372 0.2264045 -0.6934933 -0.631495 -0.5207933 -0.3889559 -0.78397036 -0.77215785 0.62013745 -0.11695783 0.723455 0.013630283 0.336641 0.16599578 -0.2533914 -1.1231133 -0.1711439 0.041626543 0.5505953 -0.08258548 0.48348165 -0.5360852 0.48903716 -0.12527129 -0.4869888 -0.8330187 -0.052322492 0.48560733 -0.026142318 0.039476298 0.061190367 -0.36688527 -0.18523495 0.41112128 0.294946 -0.50734186 -0.26942933 -0.37223637 0.6686348 0.31825653 -0.40790707 -0.21185242 -0.9285066 0.97913027 -0.22532257 -0.72771454 0.9804896 -0.042439267 0.89283705 -0.51591766 -0.25512812
4 0.00468706 -1.0366284 1.2883334 -0.4798393 0.4383445 0.13344511 -0.028325299 -1.0928019 -0.26281327 0.3106049 -0.71297044 1.2307802 0.29020584 0.98492116 -0.1635529 0.56921816 0.16802558 -0.16155148 -0.27380836 0.15147895 -0.018917507 0.5108951 0.8168674 -0.23355083 -0.4986309 -0.905729 0.42783597 -0.37056005 -1.0829473 0.2864259 -0.1976177 -0.07908319 -0.10199122 -0.04355054 0.056332745 -0.720148 -0.0594648 0.35440856 -0.58174866 0.4277542 0.42070016 1.1244248 -0.5810994 0.9974493 0.21742354 -0.5391329 -0.060008522 -0.27107915 0.68256146 -0.3986535 0.1617751 -0.773057 -0.5722275 -0.39685985 -0.027803674 -0.60980535 -0.40361875 0.79063207 -0.39847037 0.332445 0.3368173 0.44571272 -0.0075224885 -0.55091435 -0.85924476 -0.07796531 0.45671955 0.11916632 0.24308507 0.52268827 -0.38877058 0.27384362 0.13443767 -0.40788114 -0.45745534 0.16501386 0.36642653 0.0901955 0.13025373 0.2774515 -0.62307096 0.023438789 0.5302661 0.30725887 -0.42780307 0.19273157 -0.12761152 0.6025221 0.079928465 -0.45667216 -0.3463965 -0.4816256 0.86562353 -0.14449407 -0.92035246 0.9734452 0.45318875 0.9554819 -0.73955345 -0.20014778
5 -0.005032818 -0.7781706 1.4226191 0.06405355 1.1067717 0.10779251 0.21539834 -1.0204651 -0.48189715 -0.07491173 -1.4666692 1.5709033 -0.14816223 1.0187638 -0.3603628 1.0310539 0.087484054 -0.74374855 0.33237508 0.09817871 -0.07967052 0.6104667 0.49548024 0.13625494 -1.1690906 -0.77182686 1.0388092 -0.13282073 -0.70297956 0.7754905 -0.092928186 -0.42058605 -0.33529508 0.020570952 -0.28775483 -0.5469688 -0.018758215 0.6932561 -0.60522246 0.023756873 -0.1779853 0.8395464 -0.6669379 0.62055516 0.44010413 -0.4444806 0.12259648 -0.19491188 0.22355281 -0.41482475 0.16077879 -0.8051566 -0.5869736 -0.51294285 -0.4892163 -0.8434315 -0.859976 0.7076145 0.0440562 1.085674 -0.1903859 0.33440152 0.24055889 0.07401071 -1.2608249 -0.21133333 0.13056475 0.69625086 -0.20974842 0.4509427 -0.74159163 0.51521146 0.019427033 -0.40685734 -1.0376592 -0.13387787 0.57423323 -0.13206597 0.15672483 -0.026370829 -0.3772253 -0.28300375 0.29117596 0.53216404 -0.645979 -0.53478175 -0.42702666 0.7083997 0.3765964 -0.2341346 -0.11925427 -1.2300587 1.045041 -0.303245 -0.84494776 0.9000159 -0.02968162 0.82049495 -0.58474034 -0.45008466
8 -0.11772376 -0.5146414 1.4955081 0.04355441 1.2883295 0.026199475 0.23120478 -1.2118528 -0.5272542 -0.27237874 -1.7301478 1.520999 -0.34002015 0.81796956 -0.5026194 1.1326714 0.15935992 -1.0122119 0.19612251 0.058093335 -0.23888437 0.75305307 0.3992287 0.10506654 -1.0875624 -0.83064264 0.78108793 0.0738999 -0.5010049 0.7562395 -0.006979045 -0.3423749 -0.27438608 0.1415028 -0.23825347 -0.47866672 -0.12753329 0.78758276 -0.6618211 -0.41830954 -0.3052862 0.6261187 -0.7985945 0.42728058 0.35282427 -0.3339027 -0.088733666 -0.14766943 0.14878711 -0.3660214 0.019439582 -0.5818568 -0.63112086 -0.11184055 -0.54370004 -0.93436843 -1.0174274 0.5462382 0.1945454 1.3505502 -0.21495982 0.23158312 0.19583423 0.38498375 -1.1587154 -0.11429195 0.039105777 1.1361954 -0.33168572 0.3843917 -0.83810264 0.3423863 0.21759064 -0.282915 -0.98912877 -0.5207382 0.41913113 0.02419232 0.17478113 -0.044722807 -0.39086026 -0.16546845 -0.039121136 0.7039395 -0.51655895 -0.64217424 -0.69311446 0.8524855 0.10851195 -0.15787767 0.16233203 -1.2057325 1.0458709 -0.3452589 -0.56027067 0.5204993 -0.1731191 0.5285086 -0.50803804 -0.68300027
6 0.17245592 -0.7199714 1.6009655 0.15690728 1.2253128 0.021912763 0.20462431 -1.1564372 -0.50963986 -0.19317782 -1.5705637 1.6547011 -0.28627658 1.016359 -0.3310901 0.97582567 0.09487652 -0.87657994 0.5553576 0.0018962288 -0.25903538 0.8220062 0.433533 0.023524612 -1.1668776 -0.95637566 1.0939369 -0.066335954 -0.508871 0.7290709 0.035139903 -0.45055026 -0.4079707 0.20629144 -0.34372455 -0.52988285 0.039947726 0.8729469 -0.7124255 -0.10298069 -0.31452507 0.7904807 -0.82943606 0.46017474 0.5262078 -0.51821834 0.079301685 -0.07488236 -0.008229525 -0.49097675 -0.013020426 -0.7009903 -0.695532 -0.4711951 -0.5739869 -0.77941895 -1.0186204 0.7256061 -0.034765556 1.3786511 -0.31296852 0.35135293 0.24635518 0.2988869 -1.2838235 -0.26282957 -0.01470941 0.8816571 -0.28509644 0.50407404 -0.70612615 0.57151276 -0.021951443 -0.33143616 -1.2777596 -0.27859822 0.638587 -0.15704577 0.26393893 -0.017465644 -0.32295647 -0.2729996 0.08112599 0.50081843 -0.6731042 -0.6599375 -0.5343704 0.8533517 0.30609488 -0.23363757 -0.07598908 -1.4460158 1.1007018 -0.19235013 -0.74753904 0.80143493 -0.06346256 0.7562959 -0.60821736 -0.46561015
9 0.05661885 -0.5062355 1.6503258 0.2005339 1.275088 0.079824075 0.2472423 -1.1692607 -0.51271623 -0.34454554 -1.5294156 1.5498766 -0.2816564 0.9140771 -0.40763146 1.0401801 0.017245593 -1.1274711 0.4713442 0.15678748 -0.18688859 0.44345793 0.6224141 -0.047491662 -1.0093501 -0.94634724 1.0673369 0.2145874 -0.54511803 0.7770872 -0.05160536 -0.4648128 -0.2783119 0.06906855 -0.16311786 -0.52054477 -0.12935816 1.0162395 -0.5736352 -0.3069493 -0.06148502 0.76896125 -0.8847129 0.46152678 0.51252526 -0.26402187 -0.09567986 -0.10584917 -0.05996748 -0.33022857 -0.1609085 -0.62264407 -0.6926096 -0.34317094 -0.51221687 -0.82318157 -1.1225966 0.5147303 0.32921666 1.240932 -0.20747437 0.13436456 0.3337363 0.39129224 -1.0788952 -0.104668885 0.060663465 1.0127969 -0.07769072 0.44601035 -0.7086737 0.58602536 0.018301127 -0.3658797 -1.074878 -0.2630878 0.4259342 0.022973524 0.25972196 -0.023578119 -0.2987108 -0.097568884 -0.14100713 0.68171376 -0.6408449 -0.61703795 -0.7200228 0.74578357 0.24280709 -0.063050464 0.13178428 -1.3898183 1.0034199 -0.34892216 -0.4854974 0.6592025 -0.11598933 0.6701115 -0.524995 -0.58901393
7 -0.001357535 -0.70570815 1.3918632 -0.05598001 1.1051824 0.15009719 0.13817857 -1.0679485 -0.49593243 -0.059180796 -1.3596262 1.5565625 -0.1243726 1.0269536 -0.3840184 0.8593582 0.11610363 -0.82093424 0.17629775 0.07351425 -0.1068838 0.6766813 0.579601 -0.016796844 -0.94547176 -0.90848094 0.7461384 -0.06185071 -0.6749005 0.73682475 -0.05872918 -0.2867745 -0.2419598 0.002631954 -0.106298536 -0.5555586 -0.070898615 0.70616484 -0.63972837 -0.13670534 -0.0021926344 0.8390174 -0.6339976 0.4940183 0.37186047 -0.31405008 -0.0036604763 -0.09196432 0.16012383 -0.4613792 0.040675342 -0.69383705 -0.6871208 -0.4222366 -0.4728121 -0.76215607 -1.0156205 0.81852 -0.072944306 1.1687529 -0.033617277 0.33075568 0.21260236 0.076672666 -1.1232945 -0.20462091 0.23087479 0.7885465 -0.10128734 0.35012114 -0.7988299 0.45895463 0.26459086 -0.34275994 -0.9913349 -0.15678576 0.39356905 0.020381063 0.21201086 0.06981004 -0.49053597 -0.11826196 0.14861524 0.6000743 -0.5789016 -0.37677523 -0.50228566 0.8074118 0.3415648 -0.21900114 -0.055723283 -1.0253109 0.9882148 -0.20394799 -0.791333 0.7683678 0.08031362 0.8333682 -0.6310874 -0.53310263
